,AUSTRALIA,EURO AREA,NEW ZEALAND,UNITED KINGDOM,BRAZIL,CANADA,DENMARK,JAPAN,MEXICO,NORWAY,SOUTH AFRICA,SINGAPORE,SWEDEN,SWITZERLAND,TAIWAN,TURKEY,CZECHIA,HUNGARY
2010-03-01,0.29604573,11.2393079,-0.06488736,-0.41028848,-0.08708647,0.87613992,-12.46079294,-0.33665149,-0.33811508,-0.15954375,-0.06732103,2.20205802,-0.05305754,0.55479179,-0.18583931,-0.37821206,0.89547808,-0.52202592
2010-04-01,0.33503474,11.86004237,-0.07241184,-0.42207193,-0.10133941,0.88619607,-13.16858577,-0.30568572,-0.34817979,-0.15258607,-0.07310944,2.27521655,-0.0204116,0.53794054,-0.23695746,-0.38849827,0.94133866,-0.54593164
2010-05-01,0.43224583,12.05553789,-0.13182062,-0.41396076,-0.12909015,0.90793112,-13.40349818,-0.39694364,-0.41154952,-0.15035224,-0.07809631,2.42726097,-0.08597626,0.60561423,-0.24877666,-0.3948854,0.9831614,-0.5668017
2010-06-01,0.4618553,11.8361107,-0.14979744,-0.42915904,-0.13657399,0.91753944,-13.17167268,-0.40964911,-0.41267206,-0.14056998,-0.07692277,2.44793582,-0.11424217,0.59647232,-0.25693778,-0.39635737,1.02472356,-0.59008275
2010-07-01,0.43118583,11.93289737,-0.11724871,-0.41970474,-0.12940894,0.90558943,-13.26306518,-0.38272775,-0.4104819,-0.1298548,-0.07466592,2.45340867,-0.11261307,0.55839238,-0.26490391,-0.3927044,1.0183262,-0.60242055
2010-08-01,0.38393761,11.33675648,-0.09412527,-0.36244799,-0.11726823,0.87145622,-12.71390148,-0.36862047,-0.35759166,-0.15538082,-0.06433076,2.39238707,-0.09286422,0.64794145,-0.28851586,-0.374511,0.94225574,-0.5851768
2010-09-01,0.40314355,12.20624459,-0.09540562,-0.37426699,-0.11089581,0.88111049,-13.6858119,-0.37561594,-0.42516434,-0.18080815,-0.07063064,2.50335087,-0.02219977,0.67766953,-0.3276499,-0.38575957,0.96707146,-0.58438186
2010-10-01,0.43233622,11.72904881,-0.12497699,-0.32209521,-0.1090422,0.81838684,-13.22315763,-0.34471542,-0.40272858,-0.17342258,-0.06262882,2.52865569,-0.02291436,0.62490896,-0.35863017,-0.37326662,0.96123507,-0.57699301
2010-11-01,0.42514877,11.81614417,-0.12338467,-0.31751419,-0.10888045,0.82129586,-13.30101947,-0.33955854,-0.40038782,-0.17022326,-0.06317029,2.51666096,-0.02601495,0.61372842,-0.35501611,-0.37247586,0.95871672,-0.57404927
2010-12-01,0.33951262,13.9186706,-0.09112653,-0.34451103,-0.11232987,0.7309328,-14.99848809,-0.20052551,-0.29985828,-0.14680128,-0.06469221,2.03117194,0.04496297,0.32639546,-0.1335741,-0.32412834,0.80041837,-0.47602951
2011-01-01,0.31751713,13.40237289,-0.07639247,-0.30857788,-0.11159536,0.71323632,-14.43309423,-0.20072205,-0.2845566,-0.15227683,-0.06214826,1.92525294,0.0318614,0.31990685,-0.06015291,-0.30861431,0.74022035,-0.45223698
2011-02-01,0.33720139,15.18399096,-0.07686852,-0.32261054,-0.11515538,0.73513144,-16.35903717,-0.25571918,-0.28989381,-0.17408032,-0.0617521,1.98902888,0.05626188,0.49224668,-0.0932839,-0.32056106,0.72115691,-0.44605617
2011-03-01,0.35323737,14.59225845,-0.08695359,-0.30309725,-0.11592293,0.6961408,-15.79038218,-0.19389871,-0.23613802,-0.17079984,-0.05520373,1.99890306,0.07711484,0.46034888,-0.16956325,-0.31825908,0.72944509,-0.46722991
2011-04-01,0.35576714,14.99213201,-0.10818134,-0.28167328,-0.11490519,0.70032381,-16.19378562,-0.18259122,-0.24679363,-0.17566852,-0.06950038,2.06223032,0.12990398,0.38978552,-0.20577013,-0.33084913,0.73127727,-0.45170162
2011-05-01,0.32800513,15.44999968,-0.13356812,-0.28162181,-0.10811217,0.71205113,-16.6203785,-0.20946756,-0.21451446,-0.17571638,-0.05282601,2.06794702,0.09743468,0.45528065,-0.24151132,-0.345137,0.71601064,-0.4438756
2011-06-01,0.33422837,15.17549632,-0.11783099,-0.27753564,-0.09694411,0.69272107,-16.25882453,-0.23181275,-0.16077639,-0.17674876,-0.04620626,1.9976573,0.05059048,0.44588311,-0.1921359,-0.38704709,0.67158217,-0.4222964
2011-07-01,0.2421121,14.8926016,-0.1289949,-0.26219474,-0.04715408,0.67337922,-15.8525736,-0.3034546,-0.17564882,-0.21270801,-0.03205654,1.938504,0.0704288,0.49914573,-0.10514126,-0.38924466,0.60421574,-0.41121598
2011-08-01,0.2425685,15.06102215,-0.11361269,-0.27674076,-0.04162428,0.68900467,-16.12659083,-0.3179745,-0.17341721,-0.21373721,-0.02954562,2.02350032,0.0258757,0.59360009,-0.17527337,-0.40481633,0.63115271,-0.39339133
2011-09-01,0.25535396,15.58963097,-0.13190534,-0.28255765,-0.04424557,0.69509932,-16.64648372,-0.32820094,-0.19565093,-0.21704363,-0.03034756,2.02617659,0.04590142,0.57033687,-0.14220705,-0.40934729,0.64810367,-0.40261313
2011-10-01,0.23605593,14.21950782,-0.09095969,-0.26366607,-0.02658001,0.57105616,-15.14335982,-0.30496931,-0.12848282,-0.21469559,-0.03385674,2.14862863,0.05278716,0.51966658,-0.27888694,-0.43307446,0.55582318,-0.38499399
2011-11-01,0.41294504,14.65442116,-0.08717301,-0.34348255,-0.08125377,0.644426,-15.48020358,-0.178052,-0.24174505,-0.15952523,-0.06532877,2.37994575,0.13925384,0.07112363,-0.35206222,-0.48944504,0.76219407,-0.58603827
2011-12-01,0.37998123,12.72160395,-0.08563231,-0.29684359,-0.06549183,0.54025395,-13.35748399,-0.1426874,-0.25862673,-0.11684263,-0.05980165,2.42338744,0.12901494,-0.01968947,-0.44444887,-0.40933534,0.68401509,-0.62137279
2012-01-01,0.29282826,8.16461598,-0.09000599,-0.25795211,-0.08345051,0.51634924,-8.46991901,-0.19092375,-0.24467845,-0.11875289,-0.03780989,2.21190214,0.06749208,-0.04442182,-0.31491325,-0.32949969,0.56145236,-0.63231271
2012-02-01,0.3300139,7.11683637,-0.09361624,-0.24408694,-0.10962899,0.45100612,-7.41603098,-0.12296019,-0.1922806,-0.1171495,0.0305544,2.14922444,0.05759608,-0.07208483,-0.3197706,-0.33107058,0.52295607,-0.63950792
2012-03-01,0.28896827,7.86149899,-0.09439111,-0.19162743,-0.09046072,0.45091014,-8.08513632,-0.05886529,-0.14302791,-0.09621237,0.03085537,1.91339853,0.01313817,-0.08685042,-0.2480857,-0.32320063,0.45393852,-0.59485011
2012-04-01,0.24554493,6.8157158,-0.06849183,-0.21103394,-0.09399142,0.44133409,-7.06137397,-0.10109204,-0.1484421,-0.07279379,0.02532994,1.92579429,-0.01998132,-0.05905931,-0.22915399,-0.30328316,0.45599561,-0.5410178
2012-05-01,0.22839964,6.47834916,-0.07968921,-0.20753156,-0.10603651,0.45871307,-6.69310229,-0.14507561,-0.15752351,-0.07625104,0.02771664,1.9303557,-0.03849106,-0.04721357,-0.19553133,-0.29136522,0.45808976,-0.54381305
2012-06-01,0.19444911,6.13743892,-0.07403348,-0.19370871,-0.10298658,0.45166827,-6.30877704,-0.14473482,-0.15212013,-0.08538899,0.0192657,1.90597314,-0.01356724,-0.055087,-0.1842295,-0.27635975,0.4036835,-0.52148538
2012-07-01,0.19875138,5.45966057,-0.08743643,-0.15276927,-0.12348493,0.45459886,-5.58760971,-0.12662506,-0.18023233,-0.05228841,0.02867911,1.83414185,-0.08060316,-0.07692169,-0.11719263,-0.26522174,0.34034274,-0.46578914
2012-08-01,0.27304946,5.45474746,-0.05931203,-0.21560043,-0.16704282,0.46102375,-5.6356128,-0.11910199,-0.20699464,-0.03085121,0.01675667,1.95595376,-0.03211031,-0.10285965,-0.15253378,-0.31045828,0.35263513,-0.48168828
2012-09-01,0.23369737,4.87011592,-0.0564375,-0.16500681,-0.1688437,0.42233556,-4.98591607,-0.08376031,-0.13837426,-0.00603465,0.02525072,1.84271107,-0.07009973,-0.13187611,-0.14229392,-0.3158226,0.33489247,-0.46453744
2012-10-01,0.21589867,5.5914638,-0.03590925,-0.17691452,-0.15823898,0.44976544,-5.79476632,-0.06535233,-0.1598285,0.01159092,0.03354083,1.75673338,-0.066076,-0.12759554,-0.09513788,-0.31151108,0.40897781,-0.47664047
2012-11-01,0.17377449,5.32851505,-0.02840419,-0.16539751,-0.13968956,0.43371476,-5.46541592,-0.05486409,-0.13791453,0.01123625,0.03309291,1.66356939,-0.07577936,-0.13468428,-0.05750537,-0.29523425,0.37201264,-0.46102643
2012-12-01,0.12432866,4.83361983,-0.02471595,-0.16024556,-0.09323246,0.40987279,-4.92063001,-0.06387385,-0.15645988,0.01148287,0.01151575,1.63377727,-0.0857512,-0.14347255,-0.01474253,-0.27210536,0.33598902,-0.42535686
2013-01-01,0.17848348,4.74569332,-0.04985254,-0.16654929,-0.13162663,0.41753943,-4.84285068,-0.10684129,-0.14816351,0.01850123,-0.00828892,1.68735033,-0.09419458,-0.11056089,-0.00896633,-0.26450259,0.33638846,-0.451559
2013-02-01,0.20207383,4.75068751,-0.06781388,-0.17584913,-0.13361782,0.42658251,-4.86464737,-0.12632179,-0.14646048,0.01199761,-0.02164199,1.67890533,-0.09559105,-0.09659048,0.01660951,-0.25998389,0.38340015,-0.48173856
2013-03-01,0.18878797,4.57304226,-0.0620485,-0.21517674,-0.12724227,0.4282085,-4.5900863,-0.18918585,-0.16209874,-0.00627693,-0.03019962,1.71498943,-0.05352402,-0.09609043,0.04787412,-0.26299148,0.35322048,-0.51120188
2013-04-01,0.16640188,4.29200443,-0.05087181,-0.2930777,-0.10360516,0.43423662,-4.31098008,-0.25667364,-0.21186575,-0.0336763,-0.0410569,1.92413437,0.01569195,-0.08711967,-0.00577203,-0.27921846,0.38502815,-0.5435799
2013-05-01,0.18054451,4.13962205,-0.05350632,-0.28959656,-0.12207842,0.39358537,-4.19602672,-0.25592431,-0.19027333,0.0068887,-0.05269564,1.96304646,0.02397214,-0.0794735,-0.03468213,-0.2575338,0.39109162,-0.5669601
2013-06-01,0.18417198,3.47104911,-0.0302163,-0.2548953,-0.23591491,0.3808393,-3.6263667,-0.31892146,-0.1874022,0.04960768,-0.0852866,2.15683862,-0.02076687,0.01485889,-0.13803368,-0.18024402,0.34691247,-0.52623002
2013-07-01,0.10906178,3.39466794,-0.02278605,-0.23349218,-0.22027499,0.41770603,-3.48924933,-0.35204523,-0.21490376,0.03923178,-0.08519014,2.11995198,-0.02719426,-0.0285435,-0.04727435,-0.19617022,0.3092495,-0.47274499
2013-08-01,0.10003874,3.78613673,-0.03834678,-0.21948533,-0.23165054,0.4657508,-3.88081132,-0.36392549,-0.24587396,0.00700404,-0.10270477,2.10212661,-0.00094552,-0.00926518,-0.02999735,-0.18485342,0.32541986,-0.47861712
2013-09-01,0.05671843,1.81986506,-0.04828335,-0.23065003,-0.24944218,0.49929664,-1.88534858,-0.39448896,-0.23936732,0.00188299,-0.1289492,2.19267357,0.0386439,0.00222099,-0.12411003,-0.16071655,0.30589749,-0.45584289
2013-10-01,0.04326911,1.66078176,-0.04333166,-0.21467204,-0.25393364,0.50511028,-1.70470854,-0.37151139,-0.20651408,0.01091761,-0.13635133,2.11095233,0.03559646,0.00648826,-0.1348749,-0.15512247,0.32520871,-0.47730447
2013-11-01,0.06309119,2.06674648,-0.03841228,-0.20908728,-0.26884055,0.4877237,-2.12167271,-0.41240055,-0.19880544,0.01097591,-0.13473464,2.22088445,-0.00664336,0.02477273,-0.17009435,-0.16782271,0.35730711,-0.5029877
2013-12-01,0.0451503,1.29199352,-0.0373941,-0.21348826,-0.25706666,0.43985914,-1.3322884,-0.42300095,-0.19426769,0.00248187,-0.147914,2.26481219,-0.01510348,0.03649441,-0.18027013,-0.12733495,0.32779594,-0.48045877
2014-01-01,0.03908865,0.97378032,-0.04029142,-0.1998924,-0.26504374,0.43188416,-0.96389838,-0.43505318,-0.18531811,-0.00288768,-0.15301583,2.26946402,-0.01886186,0.0425098,-0.17847311,-0.12175719,0.26600905,-0.4582431
2014-02-01,-0.00989759,0.87085568,-0.03491204,-0.18928014,-0.25815634,0.4538208,-0.8142096,-0.46632106,-0.1771132,-0.04180418,-0.15788025,2.25937342,0.00647585,0.0579279,-0.15302984,-0.13156206,0.22577013,-0.44005748
2014-03-01,-0.04012208,0.88021095,-0.00586271,-0.22435093,-0.2708519,0.44451982,-0.8732038,-0.50138982,-0.20592329,0.02400503,-0.12922565,2.50671503,0.03103547,-0.000733,-0.22197475,-0.21837993,0.26207331,-0.45654176
2014-04-01,-0.03744234,0.39530626,-0.02222327,-0.2447359,-0.26444335,0.46854696,-0.39429762,-0.48403612,-0.17976447,0.05575917,-0.14965717,2.52808906,0.01739395,0.01791485,-0.30390471,-0.20926262,0.28658778,-0.47983047
2014-05-01,0.00647614,0.60110008,0.02511254,-0.24873239,-0.27592695,0.42103944,-0.4908413,-0.4676781,-0.14538925,0.0208481,-0.15547509,2.4891988,0.05119927,0.02005644,-0.36744241,-0.21888323,0.29605444,-0.56071653
2014-06-01,0.02143928,0.43234127,0.01503496,-0.22625027,-0.26044439,0.41048363,-0.31528535,-0.45894364,-0.14925406,0.02329052,-0.15571571,2.46749657,-0.00712814,0.0210135,-0.36330766,-0.20336192,0.28751871,-0.5389273
2014-07-01,0.00326422,0.18127526,0.01517094,-0.21527088,-0.26612107,0.40877256,-0.08141993,-0.44515153,-0.1301825,0.055943,-0.14942749,2.45205432,-0.02291948,0.00895609,-0.36801366,-0.20707894,0.28680552,-0.52665643
2014-08-01,0.08406532,0.71719149,-0.03095455,-0.22835312,-0.26648501,0.39209102,-0.64537381,-0.51180376,-0.18515479,0.05056816,-0.1992028,2.61440717,-0.00792465,0.00232228,-0.3381228,-0.20616223,0.26704994,-0.50815786
2014-09-01,0.05617667,0.34230083,-0.03279191,-0.20776535,-0.2623895,0.33219185,-0.28246815,-0.47459071,-0.13055592,0.10522705,-0.2039802,2.52913508,-0.02289698,-0.00665741,-0.30725143,-0.1874376,0.246989,-0.4932353
2014-10-01,0.0815323,0.16689047,-0.05279304,-0.21540931,-0.27738064,0.31606242,-0.11366824,-0.49766288,-0.13921644,0.11007213,-0.19694951,2.58141264,-0.01746357,0.00165429,-0.29846756,-0.19048887,0.2472921,-0.5054163
2014-11-01,0.08337451,-0.31764868,-0.06211577,-0.22733976,-0.28548461,0.3287791,0.3554639,-0.52346704,-0.15038554,0.10995778,-0.20146028,2.6395813,-0.01753971,0.00522152,-0.30064034,-0.19148719,0.26305681,-0.50786601
2014-12-01,0.10714556,-0.18168629,-0.09305865,-0.23237637,-0.31747645,0.34144683,0.17241933,-0.58304979,-0.18134183,0.0744666,-0.20718079,2.8331569,0.01120312,0.01445636,-0.32532832,-0.21071838,0.2787002,-0.50077802
2015-01-01,0.1394865,0.89137331,-0.10394962,-0.25776372,-0.37646019,0.35077373,-0.97411113,-0.73564279,-0.21400186,0.05193218,-0.25600109,3.33789573,0.02682114,0.04408316,-0.47709612,-0.23021541,0.3279522,-0.54507602
2015-02-01,0.29293587,1.24066243,-0.16450327,-0.3580946,-0.46953667,0.55439613,-1.45267319,-0.93320492,-0.31794491,0.00982438,-0.3883022,4.12521625,0.02120224,0.14875019,-0.81713514,-0.27132336,0.31275463,-0.53302387
2015-03-01,0.57057616,3.44725749,-0.24863161,-0.43798603,-0.66324382,0.59164572,-4.18729252,-1.25424308,-0.36622257,-0.00179476,-0.49659888,5.16470811,-0.0073157,0.63727227,-1.16514168,-0.32865778,0.4313302,-0.68566153
2015-04-01,0.58399149,3.65452586,-0.2388085,-0.46415491,-0.88375868,0.67402415,-4.70920527,-1.39840838,-0.31935236,0.2798895,-0.51548348,5.82803011,-0.12453782,0.79411054,-1.49487818,-0.45845028,0.4802919,-0.68782571
2015-05-01,0.56292225,3.49652123,-0.23138716,-0.45912249,-0.86892217,0.66706222,-4.52211835,-1.37559168,-0.31282459,0.28712102,-0.50705385,5.7422424,-0.13065693,0.78254024,-1.47203207,-0.44790461,0.47269501,-0.68349045
2015-06-01,0.53901773,1.51809477,-0.20655573,-0.50800993,-0.94275464,0.67161586,-2.57208934,-1.29719916,-0.32946729,0.2989297,-0.49390003,5.39159183,-0.06673397,0.7996732,-1.36365486,-0.27763652,0.50367799,-0.66459959
2015-07-01,0.69601178,4.06418304,-0.26655539,-0.54767671,-1.18935995,0.87536416,-5.41603699,-1.55906084,-0.43015081,0.29644466,-0.56233719,6.19826117,-0.02643596,1.03999983,-1.74770875,-0.29823095,0.57937624,-0.70608734
2015-08-01,0.64633937,2.68451363,-0.29032007,-0.5095516,-1.14957767,0.77583936,-3.80157401,-1.55662698,-0.43860253,0.13677903,-0.46065152,6.15425777,0.13111079,0.98830007,-1.75408208,-0.33373704,0.5218562,-0.74427271
2015-09-01,0.70543097,-0.14902426,-0.3296732,-0.4003622,-1.18285354,0.60845483,-1.07325327,-1.57672801,-0.51077595,0.07677779,-0.44185552,6.36351683,0.14835324,0.96331065,-1.74697834,-0.3022304,0.61219306,-0.76430269
2015-10-01,1.11590854,0.37252486,-0.44928304,-0.52095401,-1.69455572,0.81447253,-1.89416936,-2.08450559,-0.60715608,0.08964609,-0.58960279,8.26601684,0.15313735,1.27983597,-2.61347491,-0.497239,0.84285047,-0.98345215
2015-11-01,0.87794977,-0.24735773,-0.35710673,-0.4379606,-1.35842568,0.49061544,-0.79437221,-1.67901875,-0.45274122,0.02755301,-0.48326613,6.68571722,0.17418522,0.95576209,-1.78761812,-0.3849389,0.54486505,-0.77384174
2015-12-01,0.80030051,-1.06428115,-0.28157056,-0.42744574,-1.3050766,0.46262691,0.08235595,-1.5603697,-0.41994809,0.0373336,-0.45173097,6.28138264,0.16187318,0.90069085,-1.6577608,-0.33539624,0.51192963,-0.7349134
2016-01-01,1.02991117,-0.43054033,-0.38032445,-0.37700364,-1.39128385,0.43660111,-0.78352826,-1.69415065,-0.5213489,-0.03042307,-0.57840176,6.79327389,0.25597718,1.00134939,-1.78227627,-0.29677699,0.50064942,-0.75170399
2016-02-01,0.89627383,-1.2933588,-0.35102118,-0.33193641,-1.28004757,0.44358282,0.22691575,-1.53308328,-0.46558598,-0.0630092,-0.46723337,6.19086482,0.23854534,0.88751591,-1.5798359,-0.27479278,0.48180555,-0.72559955
2016-03-01,1.53591296,-3.52750379,-0.51454256,-0.66727326,-2.02072924,0.74911781,1.60593396,-2.4005556,-0.80007779,0.06284521,-0.93691295,9.66130369,0.28803497,1.5143532,-3.01250805,-0.37947348,0.82041487,-0.97833995
2016-04-01,1.35386486,-5.33288223,-0.37744741,-0.65487071,-1.87583319,0.66878995,3.72141062,-2.08579926,-0.77474366,0.11527639,-0.78756048,8.4738458,0.25390462,1.36394326,-2.56164457,-0.2937164,0.64119815,-0.84773573
2016-05-01,1.26848573,-5.65270258,-0.34689096,-0.62489943,-1.70828969,0.65471615,4.21652562,-1.88235297,-0.66400809,0.06069871,-0.72587163,7.75203368,0.22495204,1.2491735,-2.31772518,-0.28781827,0.57142241,-0.78744905
2016-06-01,0.97835243,-9.7937821,-0.2455639,-0.5801296,-1.43959482,0.5748051,8.70238885,-1.53688705,-0.56989432,0.0603784,-0.54363887,6.63266021,0.2022832,0.99396554,-1.9704049,-0.24476694,0.50607475,-0.72624597
2016-07-01,0.78275332,-10.74259313,-0.15910275,-0.44237376,-1.30519456,0.67462597,9.71137401,-1.47690137,-0.64527053,0.13033813,-0.61000792,6.43498956,0.15738775,0.86592524,-1.86491113,-0.36013441,0.50032405,-0.65122845
2016-08-01,0.82824879,-11.21014782,-0.12200349,-0.54597399,-1.38592486,0.88803592,10.08956196,-1.71307414,-0.75128441,0.122347,-0.73112082,7.51427374,0.24764653,0.92679937,-2.38417317,-0.58243352,0.5404271,-0.73120421
2016-09-01,0.94129855,-14.19427646,-0.02889381,-0.99941166,-1.52740021,1.06845019,12.95867648,-1.99073844,-1.08525572,0.12365331,-0.6573492,8.38116007,0.18451218,0.99451334,-2.31861362,-0.80983509,0.71853277,-0.7590227
2016-10-01,0.80667312,-11.86214648,-0.01605672,-0.9696176,-1.25516888,0.85271086,11.06225647,-1.60552463,-0.93731801,0.14389625,-0.4364287,6.58476515,0.17936008,0.73388275,-1.26303322,-0.9149905,0.47369978,-0.57695971
2016-11-01,0.92770266,-11.23641945,-0.0269543,-1.07797109,-1.41296551,0.91104677,10.17488798,-1.81240604,-1.20586696,0.31924721,-0.45518349,7.04897094,0.18098212,0.84182457,-1.17783687,-0.95615906,0.54675434,-0.58965382
2016-12-01,1.30423792,-15.76391346,-0.08388507,-1.5735269,-1.79391299,1.19103939,14.53615375,-2.23616544,-1.40464376,0.64568407,-0.5076976,8.07982854,-0.03005829,1.13569535,-1.22239245,-1.27675619,0.81087104,-0.81055792
2017-01-01,1.34083833,-17.04265465,-0.04676433,-1.68114449,-1.84242661,1.40619577,15.88460269,-2.30938059,-1.34872409,0.61169463,-0.64598283,8.40170184,-0.14911445,1.24121947,-1.47188579,-1.32151551,0.86608887,-0.89274824
2017-02-01,1.76484962,-18.71357072,-0.16708711,-2.15648845,-2.22827972,2.19021802,17.25386925,-2.89384738,-1.6441008,0.58585208,-0.94039579,10.31349774,-0.30113642,1.68093602,-2.09405858,-1.67919213,1.11330903,-1.08437465
2017-03-01,1.72056136,-18.22577542,-0.16245855,-2.19858753,-2.22168525,2.32063058,16.74772358,-2.81327436,-1.65023277,0.61458766,-0.89803951,9.8086895,-0.23246217,1.76378935,-1.90384167,-1.69550574,1.09508012,-1.06919917
2017-04-01,1.12081507,-12.31601708,-0.10966332,-1.24386634,-1.39689177,1.23646579,11.59117297,-1.56114654,-0.78471262,0.24515092,-0.467429,5.47082066,-0.11306208,0.99809158,-0.51889457,-1.05933569,0.68672283,-0.77822081
2017-05-01,0.95218916,-10.04321788,-0.16415262,-1.03345984,-1.204854,0.89091547,9.6506803,-1.33426889,-0.52545468,0.09559669,-0.31472372,4.79282236,-0.02692544,0.76291375,-0.34007205,-0.95253028,0.54893198,-0.75439032
2017-06-01,0.7575512,-9.31585708,-0.16706875,-0.78411418,-0.98317925,0.69896499,9.04483271,-1.03204324,-0.3061057,0.06602669,-0.32788023,3.95658755,-0.09728888,0.60343895,-0.13055006,-0.81401149,0.48033769,-0.64964094
2017-07-01,0.7130974,-9.48984705,-0.15714863,-0.69703462,-0.96039024,0.37283459,9.2158836,-1.01110799,-0.3540424,0.11058232,-0.25141412,3.86094411,-0.05807056,0.50378655,0.04176535,-0.7161832,0.4687969,-0.59245201
2017-08-01,0.69407052,-8.91444014,-0.19642262,-0.70366524,-1.01101622,0.22277455,8.53332826,-1.04242894,-0.33686595,0.11426483,-0.17882497,4.32009431,0.06310703,0.47823742,-0.18759564,-0.75058871,0.51143743,-0.6154659
2017-09-01,0.77000488,-8.30649989,-0.2383594,-0.7640405,-1.06848193,0.32721741,7.94460174,-1.12278664,-0.31212225,0.08062699,-0.22550698,4.53638874,0.02152394,0.52963859,-0.22893045,-0.84084611,0.54291547,-0.64534361
2017-10-01,0.74596954,-8.66072732,-0.21479917,-0.76725513,-1.01486659,0.24360622,8.39424067,-1.07663221,-0.34120897,0.11847512,-0.23723829,4.44597849,0.07262028,0.40690015,-0.17133977,-0.82083276,0.43241792,-0.55530818
2017-11-01,0.68275558,-9.93534351,-0.13200718,-0.65101915,-0.94858325,0.13712171,9.84914045,-1.02079869,-0.29047258,0.02536749,-0.19513529,4.21071937,0.06566384,0.32146472,-0.10238388,-0.80819168,0.32964219,-0.53794013
2017-12-01,0.69876972,-10.13956589,-0.13656923,-0.6578405,-0.96295217,0.1317163,10.05493793,-1.03473196,-0.28925735,0.02122364,-0.1998081,4.25318955,0.06486782,0.33159755,-0.09782098,-0.82842809,0.33257587,-0.54190412
2018-01-01,0.83040663,-11.10839375,-0.12929829,-0.71726664,-1.09359506,0.06006753,10.98288291,-1.18715507,-0.31732433,0.12509193,-0.24398897,4.77101341,0.06637382,0.32771682,-0.14946741,-0.93098795,0.23138725,-0.51746284
2018-02-01,0.81320299,-10.91369485,-0.16420545,-0.60024459,-1.02484553,0.12579374,10.88859147,-1.07552208,-0.35013593,0.00811129,-0.14140249,4.27660497,0.12607364,0.31867294,-0.07006198,-0.87162942,0.16255564,-0.50786437
2018-03-01,0.72310845,-9.51657684,-0.13397276,-0.53058091,-0.95841056,0.10300043,9.49074132,-0.97575522,-0.34200656,0.04727442,-0.08182417,3.9172264,0.14544065,0.25975077,0.00717396,-0.81584811,0.14255166,-0.48129293
2018-04-01,0.64224323,-9.84779917,-0.09261329,-0.47942387,-0.90528698,0.05600787,9.86648176,-0.85492643,-0.26213838,0.07087237,-0.04765046,3.52348393,0.09149159,0.25681583,0.07047302,-0.76845872,0.18555162,-0.50512391
2018-05-01,0.63900112,-9.71322373,-0.06983649,-0.45136784,-0.92117097,-0.03865805,9.77560583,-0.86126273,-0.23781346,0.13632793,-0.0158873,3.75431825,0.03619557,0.16594281,-0.03354276,-0.81953509,0.16993717,-0.51503025
2018-06-01,0.62678161,-9.2364549,-0.09549154,-0.454962,-0.90608243,-0.11654517,9.29872264,-0.88349399,-0.22645061,0.15138429,0.00995776,3.92709509,0.07096476,0.10989127,-0.07433256,-0.8612051,0.14600446,-0.48578355
2018-07-01,0.42828554,-8.39438005,0.01704013,-0.36831355,-0.75725151,-0.14395313,8.59552009,-0.70883395,-0.12445532,0.10700057,0.00546689,3.16924352,0.0703241,0.11934969,0.09674796,-0.74230123,0.1241447,-0.49363445
2018-08-01,0.32659938,-7.80877539,0.09107723,-0.33804303,-0.76129283,-0.12574314,8.1430322,-0.64307702,-0.11285851,0.13984695,0.09444682,3.08314652,0.10764089,0.04557,0.0023336,-0.73688662,-0.00182478,-0.50519226
2018-09-01,0.27125452,-7.07751355,0.16605056,-0.32599356,-0.73200527,-0.09002645,7.67310198,-0.575116,0.01279581,0.13756,0.06403767,2.68947192,0.13131354,0.04939754,0.06879351,-0.73618103,-0.15210197,-0.57483921
2018-10-01,0.46603127,-9.84199874,0.09890997,-0.21057015,-0.65561878,-0.08756745,10.19508797,-0.47001254,-0.15913344,0.1151254,-0.00809631,2.1484336,-0.00578719,0.09040834,0.18333432,-0.43068881,0.08301249,-0.51086998
2018-11-01,0.47934029,-10.08440373,0.09950424,-0.21032846,-0.64825024,-0.11681442,10.44860057,-0.47068782,-0.16567854,0.10949805,-0.00193881,2.16029322,-0.00765817,0.07561644,0.19055847,-0.42595876,0.0808954,-0.51258773
2018-12-01,0.14432068,-8.71900821,0.16017965,-0.22601128,-0.47157662,-0.12224904,9.06822931,-0.40316229,-0.29673086,0.01496115,-0.03317744,2.21142311,0.10144169,0.02392247,0.38844076,-0.38300964,0.07399255,-0.531986
2019-01-01,0.1494237,-8.31622869,0.18631862,-0.20124852,-0.48076301,-0.15589381,8.62494791,-0.42685984,-0.33334717,0.00890659,-0.02548739,2.23815545,0.13802338,0.02763311,0.39047843,-0.36052598,0.05957626,-0.52310904
2019-02-01,0.10608752,-10.42685971,0.22638225,-0.17689847,-0.46950981,-0.17777377,10.61240624,-0.43875419,-0.3355042,0.04492525,-0.02978183,2.22764505,0.17833123,0.020173,0.43136903,-0.3733903,0.12679626,-0.54564353
2019-03-01,0.04911859,-10.49731389,0.22093305,-0.11105924,-0.44293317,-0.24746837,10.59039931,-0.40576499,-0.28012683,0.04223677,0.00327281,2.39498784,0.17660815,-0.06981751,0.29512746,-0.410974,0.18126234,-0.48848832
2019-04-01,0.04206313,-12.16681871,0.2650548,-0.1238996,-0.40634017,-0.20047995,12.21144635,-0.34562203,-0.24274383,-0.08807706,-0.04442771,2.05504293,0.16588676,-0.04911972,0.43800804,-0.36941651,0.23964302,-0.38019975
2019-05-01,0.0194926,-12.56448892,0.25513693,-0.10432231,-0.39272202,-0.18894745,12.62069811,-0.31593844,-0.23513733,-0.09916101,-0.04168454,2.01395755,0.19021651,-0.04853546,0.42195519,-0.35860715,0.16440292,-0.33631517
2019-06-01,-0.01131937,-12.05287802,0.21919139,-0.16888882,-0.39047806,-0.14998375,12.18988372,-0.33343212,-0.28850711,-0.05434725,-0.0777149,2.18591963,0.14204625,-0.02162959,0.39822587,-0.36544906,0.14386838,-0.3645072
