,AUSTRALIA,EURO AREA,NEW ZEALAND,UNITED KINGDOM,BRAZIL,CANADA,DENMARK,JAPAN,MEXICO,NORWAY,SOUTH AFRICA,SINGAPORE,SWEDEN,SWITZERLAND,TAIWAN,TURKEY,CZECHIA,HUNGARY
2010-03-01,0.0288423,9.96726907,0.03668722,-0.34407666,-0.03963911,0.87131543,-11.15062388,-0.37537956,-0.29668431,-0.05384543,0.00825976,1.95812632,-0.23555407,0.75023894,-0.12058244,-0.34491603,0.89161619,-0.55105378
2010-04-01,0.72306726,18.00815203,-0.20882151,-0.55237395,-0.17557663,1.2180781,-20.36024057,-0.39404436,-0.50629479,-0.16592724,-0.13666401,3.03912371,0.10988438,0.91938714,-0.61204919,-0.5553145,1.28074278,-0.63112866
2010-05-01,0.19467847,20.26497335,0.11278015,-0.75236811,-0.19408098,0.94634896,-21.70186115,-0.53647008,-0.28876344,0.13174447,0.0248012,2.50704566,-0.24393373,0.58360304,-0.16184109,-0.38443946,1.44932993,-0.95154719
2010-06-01,0.37990384,17.56095642,-0.08495066,-0.47838426,-0.22106094,1.18899305,-19.51827713,-0.43877665,-0.46972859,-0.08810634,-0.12751328,3.16574239,-0.02551702,0.66344173,-0.68360015,-0.50386639,1.31085348,-0.6301095
2010-07-01,0.60857373,23.25699516,-0.22812204,-0.71725677,-0.19406472,1.38020979,-26.04680022,-0.59419409,-0.7535975,0.05340523,-0.04900873,3.91753333,0.06390824,0.92133359,-0.82854083,-0.69393005,1.77759556,-0.87403967
2010-08-01,-0.02567068,7.6845775,-0.05536073,-0.00113594,-0.05096771,0.84495879,-9.19235558,-0.17179809,-0.27904638,0.22307176,-0.03020049,1.84527839,0.14262912,0.34746207,-0.40706687,-0.25615988,0.82733563,-0.44555091
2010-09-01,0.7706086,10.09427014,-0.1938429,-0.34230701,-0.12088765,1.03254254,-12.1709756,-0.53043508,-0.59641519,-0.25914158,-0.10298907,3.44552441,-0.19283501,1.06155285,-0.99785808,-0.4583721,1.28835792,-0.72679721
2010-10-01,0.19315186,-3.54933013,0.128244,0.06610564,-0.08165256,0.23708924,3.30930143,0.09161154,0.32940046,-0.16669796,-0.08105306,0.86744468,-0.12252613,0.38997237,0.03964877,-0.13413075,0.03060847,-0.54718786
2010-11-01,1.61318464,23.21024072,-0.41836554,-1.06638949,-0.22078841,1.2224221,-26.53489611,-0.5786647,-1.10047975,0.16268358,-0.11355049,4.95369331,-0.37994887,0.77924081,-1.03933896,-0.9679445,2.75289066,-1.27398901
2010-12-01,0.29514906,12.48692814,-0.05178554,-0.30352763,-0.06908881,0.60451909,-13.54142437,-0.20825711,-0.2661718,-0.14985856,-0.04965346,1.98700329,0.00940051,0.41903307,-0.19421787,-0.31230004,0.7290668,-0.38481476
2011-01-01,0.54292258,18.0359718,-0.17434111,-0.38212579,-0.17227666,0.72005546,-19.51078141,-0.35065223,-0.50985048,-0.13832254,-0.04602382,2.64248761,0.01830966,0.27382351,-0.13263678,-0.41165887,1.04419876,-0.44909966
2011-02-01,0.28139777,17.02277685,-0.08298875,-0.39436344,-0.09432521,0.73757454,-18.32053157,-0.27380992,-0.32411368,-0.13793869,-0.05468903,2.30219441,0.12389023,0.47604217,-0.19248555,-0.34823193,0.73721224,-0.45761044
2011-03-01,0.3428191,25.47133595,-0.02365514,-0.67571181,-0.25322151,0.87392923,-27.57177107,-0.54875707,-0.37868603,-0.23676275,0.01239268,3.11447027,0.35790854,0.76289426,-0.3234925,-0.4812571,1.28539356,-0.72782861
2011-04-01,0.38600733,17.20651542,-0.14547236,-0.28651787,-0.12390776,0.84998492,-18.73539027,-0.22295814,-0.35983872,-0.18653131,-0.05525946,2.35003811,0.20664234,0.29909026,-0.24530077,-0.42416677,0.84859165,-0.3615266
2011-05-01,0.45112496,22.53315724,-0.24365109,-0.26734357,-0.23730105,0.76589933,-23.9880261,-0.21431255,-0.2690507,-0.09068967,-0.13873491,2.38182153,0.27786824,0.43877194,-0.37041273,-0.35086014,0.75170317,-0.42996388
2011-06-01,0.6238467,20.4419788,-0.27826749,-0.42649281,-0.13906688,0.87688394,-21.99459799,-0.35864621,-0.22865183,-0.20067257,-0.05053039,2.84897931,0.08364331,0.59047391,-0.65540215,-0.56066006,0.98479741,-0.55761499
2011-07-01,0.1232698,25.86121207,-0.16394097,-0.51248499,-0.02158391,1.04778466,-27.32086873,-0.5290391,-0.29166255,-0.18594817,-0.00720851,2.6969443,0.15068264,0.79175306,-0.40319864,-0.59198919,0.83737522,-0.48109699
2011-08-01,0.38231809,16.25248453,-0.16586742,-0.29874921,-0.03698873,0.69582392,-17.50970348,-0.36575028,-0.26354882,-0.22701268,-0.06394928,2.39788152,-0.02908222,0.65184691,-0.29503185,-0.4504262,0.69275218,-0.36699697
2011-09-01,0.24688811,15.39646837,-0.14116662,-0.29089801,-0.04342877,0.62912502,-16.36484433,-0.3999657,-0.23495645,-0.19775914,0.00767494,2.00919685,0.13265412,0.39105767,0.04529812,-0.41155771,0.583722,-0.35750848
2011-10-01,0.32600969,16.99030369,-0.1318631,-0.47864063,-0.0222626,0.5829338,-18.26152508,-0.37580063,-0.22582686,-0.31299866,-0.01656778,2.75795676,0.32260967,0.54333318,-0.47595002,-0.56294536,0.82274866,-0.48151472
2011-11-01,1.27369421,36.92598361,-0.07398632,-1.12926346,-0.24145358,1.67866668,-40.1558107,-0.80286349,-1.61667427,-0.36827714,-0.17790105,5.34754586,0.34128229,0.42607673,-1.03634958,-1.03538997,2.45632571,-0.81160553
2011-12-01,0.48995404,14.51765854,-0.08891557,-0.36105851,-0.02999774,0.60864518,-15.27989523,-0.24419753,-0.3795926,-0.172876,-0.01963902,2.95652001,0.20086513,-0.0954912,-0.71734121,-0.50583043,0.90743,-0.78623786
2012-01-01,0.22058806,8.98302652,-0.06735189,-0.24841033,-0.08907377,0.52245607,-9.25754069,-0.21184158,-0.21093249,-0.14631414,-0.02980258,2.28543268,0.10279593,-0.04771232,-0.37542263,-0.34173504,0.5692891,-0.6574509
2012-02-01,0.31664347,7.27912345,-0.0563832,-0.25634003,-0.07342011,0.46665831,-7.71250283,-0.20506778,-0.32638233,-0.15031034,0.04739605,2.42222155,0.03601531,0.00060808,-0.39173378,-0.37888665,0.60181575,-0.61945491
2012-03-01,0.38559378,8.80011413,-0.12888687,-0.12895031,-0.07297279,0.44401179,-9.27583263,-0.11867715,-0.2070015,-0.13304736,0.04442675,2.10758638,0.02262319,-0.08029556,-0.23932581,-0.39017827,0.55919959,-0.58838736
2012-04-01,0.13340058,4.19319857,-0.04944954,-0.12580572,-0.06161014,0.40659425,-4.37901606,-0.18937777,-0.16829031,-0.11908438,0.02681244,1.84242244,-0.08516718,-0.01546452,-0.09039354,-0.25207711,0.38078707,-0.44747906
2012-05-01,0.20489658,5.59465911,-0.0966864,-0.17947821,-0.08594886,0.47256961,-5.95707193,-0.19294372,-0.19729247,-0.0700426,0.01374561,2.03650125,-0.04939374,-0.02595304,-0.23148581,-0.29176847,0.50852749,-0.4528344
2012-06-01,0.1845573,6.3259298,-0.10123756,-0.19704406,-0.09807627,0.48234392,-6.61591122,-0.1434172,-0.13240342,-0.12532925,0.04074391,2.06353026,0.03888767,0.01255134,-0.34947526,-0.3077411,0.46858554,-0.54649441
2012-07-01,0.23201575,6.16411135,-0.12113201,-0.12438414,-0.12120196,0.49504075,-6.31717565,-0.12954818,-0.25851756,-0.06623848,0.0220487,1.88115524,-0.06710582,-0.07004563,-0.13358739,-0.2644305,0.36190023,-0.4829047
2012-08-01,0.2457494,5.86101199,-0.02978208,-0.22079581,-0.20661525,0.51008482,-6.19255492,-0.12829176,-0.27470421,-0.08335176,-0.00231926,2.15688984,-0.01966552,-0.07789677,-0.18283508,-0.31953942,0.44922021,-0.48460439
2012-09-01,0.28679905,2.87901932,-0.05868215,-0.11522211,-0.16488682,0.33159582,-2.94405474,-0.02820454,-0.1918286,-0.03294927,-0.01891729,1.71614908,-0.19215455,-0.11032098,-0.12683363,-0.2229954,0.32578457,-0.33229774
2012-10-01,0.2503034,5.43579601,-0.06899971,-0.21029505,-0.14094749,0.44544842,-5.88236405,-0.16246311,-0.25690056,-0.08197291,0.01617438,2.14017815,0.05859635,-0.0354927,-0.21605068,-0.31946297,0.49743925,-0.46898674
2012-11-01,0.20443687,5.28285286,-0.01683725,-0.1515093,-0.14701178,0.46550828,-5.60001164,-0.10847165,-0.24694142,0.0380077,-0.00011839,1.89083101,-0.14360332,-0.08269432,-0.10209268,-0.30124494,0.43631561,-0.41741564
2012-12-01,0.10309065,4.77366744,-0.01952054,-0.20727243,-0.08506861,0.41020991,-4.9812762,-0.07601367,-0.19700018,0.01436131,0.00409882,1.81103427,-0.07819831,-0.10620031,-0.07194666,-0.27704782,0.43588919,-0.45280686
2013-01-01,0.1766112,4.07984491,-0.05596943,-0.18298408,-0.15022316,0.4172485,-4.25049196,-0.1953704,-0.20694171,0.01484064,-0.03943836,1.85904183,-0.05166577,-0.03017002,-0.00894849,-0.25389119,0.34631191,-0.46780444
2013-02-01,0.26729129,5.53632114,-0.09136833,-0.21608179,-0.16013951,0.50246182,-5.82414031,-0.21437159,-0.23580876,0.03112598,-0.04381268,1.87665268,-0.10804777,-0.0421296,0.04532463,-0.30804905,0.46961119,-0.48483936
2013-03-01,0.25788562,5.09299904,-0.09190208,-0.25438911,-0.13834568,0.44293471,-5.20643341,-0.24691205,-0.20972845,-0.01583605,-0.03025571,1.96223304,-0.08541026,-0.0576667,0.00463684,-0.28986232,0.42048218,-0.55442959
2013-04-01,0.29529692,4.99164529,-0.10408846,-0.40545001,-0.14336318,0.48044369,-5.15808429,-0.41912271,-0.3688175,-0.02906819,-0.08467722,2.50606276,0.05016938,-0.08428673,-0.11402369,-0.2926346,0.54110012,-0.66110157
2013-05-01,0.23913009,3.86041839,-0.04588911,-0.34648494,-0.15424059,0.41101176,-4.09624299,-0.34408982,-0.28745969,0.03711532,-0.07405147,2.41491942,0.00084506,-0.02051511,-0.21284944,-0.26813419,0.50290429,-0.61638699
2013-06-01,0.06464536,1.34860324,-0.03067366,-0.18594688,-0.23324605,0.38921863,-1.4084742,-0.15913354,0.09576824,0.00797666,0.0394767,1.59617686,-0.07119648,0.11016548,-0.29276104,-0.09627437,0.32848353,-0.50280849
2013-07-01,0.07082268,4.40805875,-0.0167202,-0.21977101,-0.2110195,0.56250276,-4.65632833,-0.43421127,-0.35700719,-0.02756757,-0.10860437,2.53636283,-0.03651462,0.00118091,-0.1931698,-0.20991765,0.36474952,-0.47284594
2013-08-01,0.07969157,4.20413451,-0.03624446,-0.19009715,-0.19940017,0.49901166,-4.38005278,-0.38284872,-0.29528138,-0.03807771,-0.13055737,2.0975447,0.03714239,0.01780801,0.00519,-0.19596381,0.33623411,-0.42823339
2013-09-01,-0.16619747,4.60684795,-0.20865693,-0.24094481,-0.32656818,0.68063493,-4.89112444,-0.60273454,-0.52105853,-0.07933887,-0.26489701,3.0596051,0.36819278,-0.1233915,0.06743972,-0.15462964,0.27127589,-0.47445444
2013-10-01,0.04452572,3.51928959,-0.04902057,-0.26907834,-0.29453165,0.56899316,-3.72184704,-0.48112395,-0.2786565,-0.03672961,-0.14593351,2.37567827,0.08230843,0.11023627,-0.14437365,-0.18413209,0.41545728,-0.51106183
2013-11-01,-0.00712008,3.29982992,-0.00358556,-0.22022801,-0.30994835,0.51469484,-3.52983907,-0.51294125,-0.21751977,-0.04996379,-0.18328987,2.54890357,0.08402457,0.15129019,-0.25196143,-0.17480491,0.4130452,-0.55058621
2013-12-01,1.02151502,9.76067388,-0.38712309,-0.3961559,-0.80000323,0.86726037,-11.17195941,-1.48527527,-0.97706626,0.03551908,-0.73441607,5.79625178,0.01335198,0.47503859,-1.50292063,-0.14323709,1.10462212,-0.47607587
2014-01-01,0.06653644,1.70768831,-0.02974271,-0.29097475,-0.32326956,0.45715904,-1.90654142,-0.59488918,-0.32559477,0.01339968,-0.2061233,2.87128813,0.01590682,0.07688574,-0.26118897,-0.13697747,0.35566394,-0.48922598
2014-02-01,0.07555943,0.97421646,-0.09411058,-0.21218896,-0.32091047,0.56088475,-1.1737835,-0.61089336,-0.27092416,-0.12708878,-0.19398021,2.59127613,-0.00867468,0.25130361,-0.20015217,-0.16180535,0.3267374,-0.40546555
2014-03-01,-0.25522159,1.23646798,0.05511831,-0.19086705,-0.19863227,0.31409304,-1.15948894,-0.36199653,0.01575396,0.11130272,-0.12009431,2.25046653,0.11009005,-0.10370529,-0.31678556,-0.16696518,0.15601715,-0.37555303
2014-04-01,0.08892343,-0.80078786,-0.052776,-0.25530138,-0.35760733,0.86130806,0.49773153,-0.94064067,-0.64744262,-0.01848374,-0.3659001,3.92639233,0.10873216,0.1899516,-0.6987397,-0.36461007,0.48663408,-0.65738371
2014-05-01,0.17318567,2.02845364,0.02467821,-0.26854244,-0.44802187,0.66756958,-2.3051043,-0.87577612,-0.44642251,-0.10818347,-0.27764135,4.13577667,0.13598787,0.28759107,-1.05334483,-0.34434639,0.57836054,-0.90421997
2014-06-01,0.17203872,1.0832924,-0.02585059,-0.25979451,-0.3614252,0.41799515,-1.37663261,-0.65735162,-0.33058359,-0.0250161,-0.23384364,3.37146704,0.07330965,0.15898857,-0.68208703,-0.23089544,0.53954358,-0.63315477
2014-07-01,0.0732016,1.21210113,-0.02744254,-0.25539885,-0.36024378,0.47716468,-1.5321073,-0.65678686,-0.17040986,0.10625226,-0.19756695,3.26943757,-0.04085297,0.20383516,-0.70797376,-0.24933703,0.44597804,-0.58985054
2014-08-01,-0.08382638,1.93106008,0.02502865,-0.11139733,-0.14577986,0.27877831,-1.71491644,-0.26960651,-0.13527052,0.017936,-0.10291507,1.92753277,-0.07326332,-0.13405461,-0.14800869,-0.08716368,0.25621325,-0.43034663
2014-09-01,0.08598127,0.71193388,-0.04499993,-0.12959166,-0.28194197,0.29845051,-0.78419291,-0.55042749,-0.17524776,0.07603992,-0.27913718,2.75596992,-0.01149748,0.08576608,-0.41394302,-0.15044514,0.24468608,-0.4374031
2014-10-01,0.12035003,-1.10954766,-0.07876638,-0.26017988,-0.34158745,0.3814626,1.03543003,-0.62879711,-0.20869627,0.06645786,-0.25072381,3.11348603,0.02496836,0.04217131,-0.50523776,-0.21552108,0.37440148,-0.5596703
2014-11-01,0.02162355,0.24379763,-0.00915249,-0.28735118,-0.41594798,0.35867324,-0.33874545,-0.69341442,-0.18610542,0.23134606,-0.24064672,3.22220711,-0.01110994,0.04089488,-0.44917184,-0.25545357,0.36884768,-0.60029114
2014-12-01,-0.27718704,-4.5270368,-0.08324976,-0.71101927,-0.40228735,-0.20045745,3.9489447,-0.53623055,0.47558875,0.93466471,-0.44322203,4.1580793,-0.25445946,0.31228511,-1.00870861,-0.09533822,0.2293188,-0.51968485
2015-01-01,0.29071977,-0.17493392,-0.12117974,-0.24600343,-0.44387138,0.37286308,-0.12304397,-0.91576737,-0.21858511,0.03961848,-0.26075312,3.72696452,-0.02723875,0.16414832,-0.58238507,-0.36204958,0.43691572,-0.55541843
2015-02-01,0.46399319,2.26073795,-0.10403916,-0.51111687,-0.68704289,0.62073577,-2.70520126,-1.20843091,-0.53041182,-0.0235375,-0.5327379,5.44226415,-0.05472352,0.3013546,-1.22943673,-0.28134708,0.46699216,-0.68805217
2015-03-01,0.53037418,-0.33037052,-0.22917529,-0.15912601,-0.82117222,0.53160853,-0.95209236,-1.37154076,-0.39311517,-0.02711995,-0.51097538,5.75802632,0.09312198,0.73433864,-1.41178024,-0.33970341,0.59488084,-0.69617917
2015-04-01,1.04801524,-7.16605458,-0.16146675,-0.12532319,-0.70098193,0.16340828,6.16346808,-0.93147836,-0.44269262,0.82471796,-0.50035056,4.37849487,-0.51621975,0.1521971,-0.75629353,-0.55040393,0.45363165,-0.33266798
2015-05-01,0.80342819,34.90070774,-0.03314803,-0.82940331,-2.57281275,2.49043029,-38.23658461,-3.41022661,0.60888228,-0.18859894,-1.33388349,15.57077019,-0.04753967,1.7588289,-7.31762351,-1.54346122,2.31424436,-1.93400982
2015-06-01,0.49883979,7.33452576,-0.47620519,0.15115395,0.18524681,-0.34724752,-5.70083662,0.06195922,-0.03789602,-0.41942115,-0.06898101,0.34711505,-0.33917317,-0.81639402,1.29420962,-0.30176024,-0.48848185,0.1233466
2015-07-01,0.2084206,-0.38179217,0.14681476,0.30480033,0.53351953,1.05681087,0.74720603,0.4296184,0.45566394,-0.61287044,0.47183208,-2.97374114,0.23969993,0.06389682,1.86930236,-0.94152771,-0.04337724,-0.57427695
2015-08-01,0.97434608,-7.01054737,-0.16276979,-0.20747881,-0.68438715,0.58594077,6.71555085,-0.72597269,-0.45982408,-0.00846987,-0.4734006,3.20498482,-0.31796414,0.41628511,-0.76983155,-0.36074678,0.17712416,0.10716107
2015-09-01,-3.02372549,25.57952943,1.75493798,4.71010987,6.63748162,-2.88811461,-15.40297014,6.1447047,2.11905092,-2.20016653,1.80352368,-25.12979803,-1.17239156,-4.30186873,8.64645719,0.87744796,-6.97761003,3.82340177
2015-10-01,-0.01721056,-7.51032217,-0.00561007,0.00604351,-0.81059283,0.16491155,6.29713446,-0.6386936,-0.16009542,0.36302164,-0.28402575,3.41869142,-0.02673543,0.44940344,-0.85849415,0.06648122,0.6569068,-0.11081407
2015-11-01,0.41795895,-6.95513342,-0.41537074,0.06769135,-0.62769378,0.59099034,6.97582862,-0.12920006,1.10789859,-0.58796148,-0.21971915,1.12941963,0.53698935,0.50417611,-1.13326934,0.32797683,-0.18193351,-0.40864831
2015-12-01,0.47197667,-2.81275691,-0.06937946,-0.13348704,-0.80927831,0.03261903,2.36101474,-0.89745078,-0.32088722,0.30075383,-0.31162646,3.29931323,0.26150297,0.37690602,-0.28870454,-0.15038874,-0.01994144,-0.29018559
2016-01-01,0.3818006,3.77836033,-0.20258493,-0.33626806,-0.96640415,0.35474917,-3.53169889,-1.14179385,-0.26899664,-0.34095848,-0.50089982,4.58325035,0.92739073,0.42572136,-0.85046873,-0.12843256,-0.10768289,-1.07508352
2016-02-01,-0.35661893,11.17193034,0.068682,1.30115272,1.23172756,1.21172195,-7.98037132,0.66115483,-0.44074358,-0.95599363,-0.30193456,-7.44834795,-0.74581576,0.08517944,4.1391164,1.05053861,-2.08767816,0.39630006
2016-03-01,1.47921958,-2.73762912,-0.8395443,-0.73245806,-1.96925847,1.03104754,0.61859338,-2.91443245,-1.24983463,-0.20951791,-1.21532138,11.47801697,0.53414795,1.40520265,-3.48971676,-0.34347678,0.67947962,-0.52451783
2016-04-01,1.50583815,-17.68536321,0.30570588,-0.23083066,-2.34658639,-0.76206227,15.7315791,-1.93337366,-0.67981408,0.04834908,0.09880887,9.68375237,-0.73303555,0.62279525,-3.60616027,-0.53288868,2.66471413,-1.15142804
2016-05-01,1.36506787,-7.82932144,-0.51167294,-0.53544057,-1.68988969,0.68306387,6.25789061,-2.12748137,-1.37371806,-0.20467085,-0.88742227,9.29638594,0.41617354,1.33651594,-2.76495703,-0.3217581,0.4704295,-0.57919495
2016-06-01,0.03053084,-6.52599382,-0.12297795,0.28939801,-0.27571045,-0.53518622,6.55906499,-0.22199109,-0.16064303,-0.12373528,0.07605589,1.32619723,0.61616939,-0.22535755,0.29061495,-0.03386169,0.13757404,-0.10014828
2016-07-01,-1.31850673,12.57543926,1.77063378,0.41182398,0.19612032,-0.52330936,-8.61491569,0.74246014,0.80070999,-0.28772366,0.73380857,-2.35156487,-0.92940672,-0.32869251,0.45982774,-0.58516729,-2.02544521,0.27390827
2016-08-01,1.79481275,24.27684385,-3.729e-05,0.14220637,-2.92206614,0.43251905,-27.97796659,-5.36403937,-1.01860804,0.11820623,-2.41763135,17.98192544,1.32302045,3.9358276,-5.66394295,-1.77498824,-2.0763061,0.21022432
2016-09-01,1.12791451,-8.96744376,-0.25238728,-0.66551759,-0.79416689,0.65446079,8.74268425,-0.8447998,-0.75613285,-0.18024201,-0.33172534,3.42398315,-0.20697367,0.37512969,-0.23098226,-0.31063436,0.19925221,0.0175812
2016-10-01,0.64282011,7.43183487,-0.16806091,-1.23175672,-1.07535872,1.84900166,-8.33537825,-2.14925163,-0.48205106,0.04525323,-1.0557699,8.55388125,-0.5756655,1.35395049,-2.2662462,-1.5624839,0.06353652,-0.03825532
2016-11-01,-1.08974599,-7.12198719,-0.38422684,0.55451863,0.99461071,-1.02924485,9.81824206,0.36396905,0.08792156,-0.77625296,0.45139458,1.4669578,0.57673268,-1.65553758,0.03473555,0.12565015,-0.68022181,-0.73751555
2016-12-01,0.30054587,-7.35484377,0.04150166,-0.1767263,-0.72667582,0.54676126,7.75262994,-0.70322442,0.04548769,0.55889477,-0.24074156,3.03170098,-0.41976477,0.33328475,-1.1430164,-0.64718497,0.26528519,-0.46391409
2017-01-01,-1.20377568,46.04242465,-0.77021575,-1.1011667,-0.42622159,-0.13381955,-45.42559417,-1.53895714,0.75349475,-0.67564891,-0.42987079,3.53268366,0.81775355,-0.65524218,2.82117305,0.07643947,-1.16640837,0.48295169
2017-02-01,-2.10747575,9.83157487,-0.09996649,0.55467176,2.18086041,-0.65437755,-8.13462735,2.13164147,-0.86896276,-1.29651674,1.25353572,-6.52166939,0.86282518,-1.15719677,3.67397929,1.54310592,-0.95359398,0.76219216
2017-03-01,-1.98326345,7.28281535,0.082167,1.75321331,1.68308191,-1.63865864,-4.07797696,2.18772433,0.84392425,-1.63725181,1.14098011,-6.68344874,0.08529437,-1.37496913,2.10092672,1.3946719,-0.79028527,0.63105475
2017-04-01,0.29555466,-75.92858643,1.5932164,-2.99138815,-2.59974781,3.16250002,73.06524159,-3.29348929,-1.53996942,0.86011494,-0.8326596,11.60389669,-0.78593239,2.31305673,-1.7699279,-2.84554975,1.64737808,-0.95370836
2017-05-01,0.6733374,-7.6677653,0.04286638,-0.86908855,-1.09037105,0.70994905,7.1698447,-1.2374511,-0.3907743,-0.01025467,-0.47093461,4.79516276,0.11828054,0.65984201,-0.43924063,-0.98118611,0.58237511,-0.59459165
2017-06-01,3.96198808,-22.49739549,-0.83114433,-1.21216223,-2.502734,1.27305193,21.43055381,-1.5524837,-0.45418512,-0.8901738,-0.37284494,8.41286342,-1.21157226,1.5508205,-2.97209425,-1.54157017,1.67847674,-1.26939418
2017-07-01,-0.03318841,-13.60485283,0.30838154,-0.29739074,-0.85712421,0.09838454,13.74343523,-0.26190788,-0.19918954,0.3746877,-0.04980803,1.34070379,0.00152804,0.27638977,0.48485511,0.01294485,0.65539033,-0.99323926
2017-08-01,0.47450788,-8.09905556,-0.06763118,-0.4613905,-0.65835186,0.65416685,8.06937821,-0.65308798,-0.34509181,-0.04559803,-0.33121168,2.42987957,-0.02567304,0.50951561,0.22293323,-0.61801367,0.28812643,-0.34340247
2017-09-01,0.40735895,-8.06215296,-0.11097505,-0.46176283,-0.55847631,0.4528784,8.57813387,-0.648125,-0.1899917,0.0065211,-0.31053066,2.44429763,-0.29581348,0.08834298,0.30631168,-0.49955497,0.22567029,-0.37213195
2017-10-01,0.43973512,-12.59427587,0.02219641,-0.14910342,-0.08528675,-0.32976357,13.00172655,-0.10278986,-0.59859007,-0.19755998,-0.24514362,1.68839221,-0.27061147,-0.10984099,0.89828276,-0.41459537,-0.01048184,0.05770975
2017-11-01,1.00351851,-16.14205939,-0.26017266,-0.83138942,-1.10946823,-0.2201607,15.74682745,-1.30345228,-0.60623958,0.10380563,-0.25260064,4.83879533,0.51790168,0.19079138,0.24295025,-0.89190808,0.40965964,-0.4367989
2017-12-01,0.67472163,-10.65917485,0.10363381,-0.73805222,-1.07362891,0.17745358,10.7582377,-1.19261507,-0.16673561,-0.09469008,-0.26064055,4.17233552,0.09807952,0.50013891,0.04578496,-0.99488223,0.50998233,-0.85994845
2018-01-01,-0.589302,0.03973433,0.4829969,-0.11384487,-0.23841444,-0.71641086,0.99041397,-0.04599341,-0.1227936,-0.34154545,0.3058506,1.51427315,0.68616112,-0.41428923,0.50216884,-0.13013918,-0.30151608,-0.50734978
2018-02-01,0.60348629,-9.89658098,0.04162437,-0.3234516,-0.73039933,-0.0379799,9.97803666,-0.67027133,-0.20973299,-0.12428018,-0.23564173,3.01670673,0.05941571,0.08540817,0.49564922,-0.77010744,0.00091608,-0.28279774
2018-03-01,0.21529683,-16.8652971,0.17594308,-0.35946991,-0.69476743,0.43444781,16.42497723,-0.61343102,-0.45518765,0.35970069,-0.08838035,2.72039907,-0.0871538,0.27317981,-0.04846545,-0.65513536,0.56906875,-0.3057252
2018-04-01,0.59695284,-15.79237363,0.1184511,-0.65150907,-1.08407613,-0.38802375,15.09871221,-1.19458324,-0.82861698,0.26381264,-0.24954285,5.3493716,0.27562894,0.28147256,-0.02352931,-0.79136455,0.39191668,-0.37269906
2018-05-01,0.76057153,-15.68144987,-0.04784745,-0.44242825,-0.99467005,-0.22796272,15.4467047,-1.0274307,-0.34395843,0.10194775,-0.11335425,4.35542605,-0.14358678,0.22255642,-0.01494505,-0.886775,0.46845778,-0.43125569
2018-06-01,0.70526021,-9.18826663,-0.07239468,-0.37601459,-0.87282908,-0.22495041,9.07603918,-0.77651714,-0.21251638,0.03478243,0.05647996,3.81813776,-0.10888194,0.04539007,-0.03098184,-0.77101817,0.22808772,-0.32980645
2018-07-01,0.39441828,-9.1962522,0.02616137,-0.90752972,-1.45316977,0.16893777,9.35332343,-1.50039582,-0.32598137,0.16462316,-0.24954357,6.85170036,0.31755263,0.19596999,-0.77878623,-1.35599073,0.17912638,-0.88416398
2018-08-01,0.37099023,-6.4493202,-0.12186033,-0.30887517,-0.72425585,-0.13034941,6.64263354,-0.67010741,-0.07942438,-0.03573753,0.0663032,3.27857225,0.04896342,0.02831319,-0.05427888,-0.64064004,0.21652862,-0.43745525
2018-09-01,0.46619534,-8.69926015,0.11760509,-0.38883628,-0.88921382,-0.15268644,8.98281071,-0.70286478,0.09405024,0.0322917,-0.00162809,3.08999382,0.25700469,0.13605712,0.09486008,-0.9221838,0.14019777,-0.65439318
2018-10-01,0.41484072,-6.83406559,0.02314812,-0.20014315,-0.54708243,0.08840253,7.25604092,-0.53224824,-0.23061024,-0.14692787,-0.07718247,1.79130431,0.23906778,0.17375751,0.5065507,-0.48739235,-0.07940246,-0.3580578
2018-11-01,0.37644169,-10.83883138,0.12789973,-0.22548442,-0.62515771,-0.10276287,11.18438407,-0.46090135,-0.17096524,0.09376252,-0.04275508,2.12359543,-0.02703987,0.13860691,0.23867565,-0.40688106,0.14873182,-0.53131882
2018-12-01,0.09892351,-12.17917782,0.20071075,-0.22352308,-0.4561776,-0.19824961,12.3506463,-0.45191167,-0.32948843,0.00699952,-0.07974695,2.39884024,0.10831919,0.03650466,0.43243074,-0.39249202,0.18270543,-0.50531314
2019-01-01,0.1448682,-11.87578031,0.22934124,-0.24185439,-0.62331981,-0.22790201,11.82674064,-0.57972208,-0.37244106,-0.0086595,-0.05878015,2.81445838,0.25685514,0.13090828,0.39460638,-0.43371407,0.20445794,-0.58006282
2019-02-01,0.22102175,-11.61322102,0.06752396,-0.12428006,-0.41081343,-0.40663301,11.84641226,-0.34863659,-0.24845451,0.00383691,0.01277166,2.20588697,0.02008241,-0.03443088,0.3941013,-0.33060362,0.09710956,-0.35167365
2019-03-01,0.06496755,-10.3728431,0.25198159,-0.10968123,-0.55979634,-0.34976216,10.32396655,-0.50938152,-0.31498067,0.03793642,0.00304749,3.14713654,0.28298355,-0.12321909,0.0281334,-0.54500699,0.16254623,-0.41802826
2019-04-01,0.04118724,-13.73314724,0.23785322,-0.10250788,-0.386542,-0.199502,13.70457441,-0.39396791,-0.25991807,-0.02368871,-0.05040903,2.1911857,0.16513489,-0.12926144,0.43505678,-0.42375004,0.27403769,-0.34633562
2019-05-01,0.04310578,-13.34343881,0.24571732,-0.1195903,-0.3732031,-0.16607597,13.38376221,-0.32137539,-0.20372624,-0.20831171,-0.07275225,2.07945797,0.12084566,-0.0122562,0.39666763,-0.38578193,0.26018523,-0.3232299
2019-06-01,0.06334687,-16.52191741,0.35101239,-0.32382282,-0.52874873,-0.25546387,16.3686921,-0.48561074,-0.40932042,0.03300224,-0.18888437,2.87136172,0.09901964,0.03144564,0.41162372,-0.47761147,0.50876889,-0.54689336
